<?xml version="1.0"?>
<opencv_storage>
<stage20>
  <maxWeakCount>6</maxWeakCount>
  <stageThreshold>-6.8765306472778320e-01</stageThreshold>
  <weakClassifiers>
    <_>
      <internalNodes>
        0 -1 171354 -6.2455702573060989e-03</internalNodes>
      <leafValues>
        1.0416666418313980e-01 -7.2972971200942993e-01</leafValues></_>
    <_>
      <internalNodes>
        0 -1 191157 -1.4189793728291988e-03</internalNodes>
      <leafValues>
        3.6780348420143127e-01 -6.0703802108764648e-01</leafValues></_>
    <_>
      <internalNodes>
        0 -1 142111 3.6298856139183044e-03</internalNodes>
      <leafValues>
        -3.6870509386062622e-01 5.0595301389694214e-01</leafValues></_>
    <_>
      <internalNodes>
        0 -1 223522 1.6331499442458153e-02</internalNodes>
      <leafValues>
        -4.7195279598236084e-01 5.4369550943374634e-01</leafValues></_>
    <_>
      <internalNodes>
        0 -1 190785 -2.3153655230998993e-02</internalNodes>
      <leafValues>
        -9.6225273609161377e-01 2.1069657802581787e-01</leafValues></_>
    <_>
      <internalNodes>
        0 -1 127495 1.3805823400616646e-02</internalNodes>
      <leafValues>
        -4.2947849631309509e-01 5.7758295536041260e-01</leafValues></_></weakClassifiers></stage20>
</opencv_storage>
