<?xml version="1.0"?>
<opencv_storage>
<stage16>
  <maxWeakCount>6</maxWeakCount>
  <stageThreshold>-6.4828783273696899e-01</stageThreshold>
  <weakClassifiers>
    <_>
      <internalNodes>
        0 -1 210436 -2.1409194916486740e-02</internalNodes>
      <leafValues>
        5.1999998092651367e-01 -6.1783438920974731e-01</leafValues></_>
    <_>
      <internalNodes>
        0 -1 213001 1.1236250400543213e-02</internalNodes>
      <leafValues>
        -6.4244282245635986e-01 3.4549739956855774e-01</leafValues></_>
    <_>
      <internalNodes>
        0 -1 5290 -1.5435578301548958e-02</internalNodes>
      <leafValues>
        7.6287734508514404e-01 -3.1221157312393188e-01</leafValues></_>
    <_>
      <internalNodes>
        0 -1 70214 1.8437001854181290e-02</internalNodes>
      <leafValues>
        -5.2592468261718750e-01 4.9438264966011047e-01</leafValues></_>
    <_>
      <internalNodes>
        0 -1 98544 -2.9116439819335938e-01</internalNodes>
      <leafValues>
        -8.8328218460083008e-01 2.9231375455856323e-01</leafValues></_>
    <_>
      <internalNodes>
        0 -1 251149 1.4613227685913444e-03</internalNodes>
      <leafValues>
        3.2516029477119446e-01 -7.8280925750732422e-01</leafValues></_></weakClassifiers></stage16>
</opencv_storage>
