<?xml version="1.0"?>
<opencv_storage>
<stage13>
  <maxWeakCount>5</maxWeakCount>
  <stageThreshold>-8.8911247253417969e-01</stageThreshold>
  <weakClassifiers>
    <_>
      <internalNodes>
        0 -1 222895 3.4972589462995529e-02</internalNodes>
      <leafValues>
        -6.7567569017410278e-01 4.9152541160583496e-01</leafValues></_>
    <_>
      <internalNodes>
        0 -1 71326 1.3605207204818726e-02</internalNodes>
      <leafValues>
        -3.6896473169326782e-01 8.8899570703506470e-01</leafValues></_>
    <_>
      <internalNodes>
        0 -1 206053 -6.9868814898654819e-04</internalNodes>
      <leafValues>
        -8.7962555885314941e-01 3.0819594860076904e-01</leafValues></_>
    <_>
      <internalNodes>
        0 -1 169146 5.4730963893234730e-03</internalNodes>
      <leafValues>
        -5.0173956155776978e-01 5.0855499505996704e-01</leafValues></_>
    <_>
      <internalNodes>
        0 -1 203613 2.4266364052891731e-03</internalNodes>
      <leafValues>
        3.4907153248786926e-01 -7.6737171411514282e-01</leafValues></_></weakClassifiers></stage13>
</opencv_storage>
